svm_type c_svc
kernel_type rbf
gamma 0.125
nr_class 2
total_sv 298
rho -7.40186
label 1 -1
probA -0.978336
probB 0.190073
nr_sv 149 149
SV
128 1:0.11996929 
128 1:0.098929213 
128 1:0.053651899 
128 1:0.047987717 
128 1:0.075875245 
128 1:0.095975434 
128 1:0.1073038 
128 1:0.053651899 
128 1:0.37248486 
128 1:0.34353978 
128 1:0.31558993 
128 1:0.31192016 
128 1:0.27357207 
128 1:0.2446903 
128 1:0.25842177 
128 1:0.20500361 
128 1:0.18273178 
128 1:0.13990704 
128 1:0.098929213 
128 1:0.053651899 
128 1:0.03393244 
128 1:0.44242489 
128 1:0.03393244 
128 1:0.458402 
128 1:0.071981576 
128 1:0.047987717 
103.1624693210774 1:0.023993859 
128 1:0.023993859 
128 1:0.023993859 
128 1:0.023993859 
128 1:0.023993859 
128 1:0.047987717 
128 1:0.071981576 
128 1:0.047987717 
128 1:0.053651899 
128 1:0.023993859 
128 1:0.071981576 
128 1:0.03393244 
128 1:0.10179732 
128 1:0.086511091 
128 1:0.3219114 
128 1:0.28991891 
128 1:0.27357207 
128 1:0.25953325 
128 1:0.095975434 
128 1:0.11996929 
128 1:0.071981576 
128 1:0.023993859 
128 1:0.023993859 
128 1:0.023993859 
128 1:0.047987717 
128 1:0.023993859 
128 1:0.071981576 
128 1:0.095975434 
128 1:0.095975434 
128 1:0.12234515 
128 1:0.11996929 
128 1:0.053651899 
128 1:0.075875245 
128 1:0.023993859 
128 1:0.023993859 
128 1:0.053651899 
128 1:0.03393244 
128 1:0.023993859 
128 1:0.10179732 
128 1:0.023993859 
128 1:0.047987717 
128 1:0.098929213 
128 1:0.023993859 
128 1:0.12921089 
128 1:0.098929213 
128 1:0.047987717 
128 1:0.06786488 
128 1:0.15363566 
128 1:0.023993859 
128 1:0.023993859 
128 1:0.023993859 
128 1:0.06786488 
128 1:0.10179732 
128 1:0.095975434 
128 1:0.023993859 
128 1:0.06786488 
128 1:0.075875245 
128 1:0.12234515 
128 1:0.047987717 
128 1:0.1073038 
128 1:0.023993859 
128 1:0.12234515 
128 1:0.071981576 
128 1:0.14594895 
128 1:0.12234515 
128 1:0.14594895 
128 1:0.15175049 
128 1:0.086511091 
128 1:0.18273178 
128 1:0.21727364 
128 1:0.21594473 
128 1:0.23993859 
128 1:0.18739803 
128 1:0.25050324 
128 1:0.12921089 
128 1:0.19785843 
128 1:0.22121245 
128 1:0.1696622 
128 1:0.21727364 
128 1:0.047987717 
128 1:0.075875245 
128 1:0.03393244 
128 1:0.023993859 
128 1:0.023993859 
128 1:0.086511091 
128 1:0.053651899 
128 1:0.053651899 
128 1:0.06786488 
128 1:0.075875245 
128 1:0.075875245 
128 1:0.075875245 
128 1:0.10179732 
128 1:0.053651899 
128 1:0.023993859 
128 1:0.071981576 
128 1:0.047987717 
128 1:0.095975434 
128 1:0.075875245 
128 1:0.11996929 
128 1:0.053651899 
128 1:0.053651899 
128 1:0.12921089 
128 1:0.13990704 
128 1:0.075875245 
128 1:0.047987717 
128 1:0.11996929 
128 1:0.023993859 
128 1:0.17467792 
128 1:0.15175049 
128 1:0.21727364 
128 1:0.1696622 
128 1:0.095975434 
128 1:0.047987717 
128 1:0.098929213 
128 1:0.14594895 
128 1:0.17302218 
128 1:0.086511091 
128 1:0.12234515 
128 1:0.11996929 
128 1:0.1073038 
128 1:0.14594895 
128 1:0.023993859 
128 1:0.023993859 
-128 1:0.06786488 
-128 1:0.12921089 
-128 1:0.098929213 
-128 1:0.17302218 
-128 1:0.18273178 
-128 1:0.23752709 
-128 1:0.19195087 
-128 1:0.075875245 
-128 1:0.06786488 
-128 1:0.15175049 
-128 1:0.047987717 
-128 1:0.2446903 
-128 1:0.12921089 
-128 1:0.053651899 
-128 1:0.098929213 
-128 1:0.053651899 
-128 1:0.047987717 
-128 1:0.25050324 
-128 1:0.11996929 
-128 1:0.023993859 
-128 1:0.047987717 
-128 1:0.053651899 
-128 1:0.023993859 
-128 1:0.22762572 
-128 1:0.25842177 
-128 1:0.18739803 
-128 1:0.11996929 
-128 1:0.06786488 
-128 1:0.023993859 
-128 1:0.023993859 
-128 1:0.06786488 
-128 1:0.03393244 
-128 1:0.11996929 
-128 1:0.1696622 
-128 1:0.06786488 
-128 1:0.18739803 
-128 1:0.047987717 
-128 1:0.20640298 
-128 1:0.06786488 
-128 1:0.10179732 
-128 1:0.19344468 
-128 1:0.13572976 
-128 1:0.11996929 
-128 1:0.11996929 
-128 1:0.1073038 
-128 1:0.21594473 
-128 1:0.06786488 
-128 1:0.047987717 
-128 1:0.11996929 
-128 1:0.086511091 
-128 1:0.03393244 
-128 1:0.22635761 
-128 1:0.023993859 
-128 1:0.1696622 
-128 1:0.15175049 
-128 1:0.22121245 
-128 1:0.023993859 
-128 1:0.1696622 
-128 1:0.1609557 
-128 1:0.047987717 
-128 1:0.15175049 
-128 1:0.053651899 
-128 1:0.03393244 
-128 1:0.14594895 
-128 1:0.023993859 
-128 1:0.1073038 
-128 1:0.25050324 
-128 1:0.098929213 
-128 1:0.075875245 
-128 1:0.03393244 
-128 1:0.1073038 
-128 1:0.023993859 
-128 1:0.071981576 
-128 1:0.053651899 
-128 1:0.22762572 
-128 1:0.095975434 
-128 1:0.047987717 
-128 1:0.06786488 
-128 1:0.13990704 
-128 1:0.12921089 
-128 1:0.17302218 
-128 1:0.023993859 
-128 1:0.086511091 
-128 1:0.053651899 
-128 1:0.086511091 
-128 1:0.06786488 
-128 1:0.03393244 
-128 1:0.023993859 
-128 1:0.047987717 
-128 1:0.03393244 
-128 1:0.095975434 
-128 1:0.075875245 
-128 1:0.047987717 
-128 1:0.12234515 
-128 1:0.023993859 
-128 1:0.2363121 
-103.1624693210774 1:0.27145952 
-128 1:0.06786488 
-128 1:0.16795701 
-128 1:0.075875245 
-128 1:0.095975434 
-128 1:0.047987717 
-128 1:0.053651899 
-128 1:0.2446903 
-128 1:0.14396315 
-128 1:0.047987717 
-128 1:0.16795701 
-128 1:0.023993859 
-128 1:0.086511091 
-128 1:0.24703189 
-128 1:0.18273178 
-128 1:0.06786488 
-128 1:0.023993859 
-128 1:0.098929213 
-128 1:0.023993859 
-128 1:0.075875245 
-128 1:0.098929213 
-128 1:0.095975434 
-128 1:0.086511091 
-128 1:0.075875245 
-128 1:0.095975434 
-128 1:0.12921089 
-128 1:0.098929213 
-128 1:0.086511091 
-128 1:0.023993859 
-128 1:0.095975434 
-128 1:0.11996929 
-128 1:0.086511091 
-128 1:0.11996929 
-128 1:0.098929213 
-128 1:0.1609557 
-128 1:0.071981576 
-128 1:0.11996929 
-128 1:0.23993859 
-128 1:0.2411353 
-128 1:0.075875245 
-128 1:0.12921089 
-128 1:0.11996929 
-128 1:0.15175049 
-128 1:0.21460759 
-128 1:0.2363121 
-128 1:0.1609557 
-128 1:0.22121245 
-128 1:0.086511091 
-128 1:0.095975434 
-128 1:0.18739803 
-128 1:0.13990704 
-128 1:0.023993859 
-128 1:0 
