svm_type c_svc
kernel_type rbf
gamma 8
nr_class 3
total_sv 571
rho 3.99961 -14.3283 -24.7525
label 0 1 2
probA -0.81581 -0.487602 -0.188011
probB -0.075367 -0.253255 0.0526661
nr_sv 174 197 200
SV
8192 8192 1:0.12538152 
0 3868.939658862743 1:0.89881048 
0 8192 1:0.88559557 
8192 8192 1:0.37381547 
0 8192 1:0.872681 
0 8192 1:0.872681 
5358.455539399589 8192 1:0.85906422 
8192 8192 1:0.34464083 
8192 8192 1:0.84677662 
8192 8192 1:0.1065538 
8192 8192 1:0.041793839 
8192 8192 1:0.066081861 
8192 8192 1:0.3141496 
8192 8192 1:0.31966139 
8192 8192 1:0.37845932 
8192 8192 1:0.11821083 
8192 8192 1:0.059105414 
8192 8192 1:0.1065538 
8192 8192 1:0.083587678 
8192 8192 1:0.029552707 
8192 8192 1:0.14776353 
8192 8192 1:0.12184893 
8192 8192 1:0.083587678 
8192 8192 1:0.42313037 
8192 8192 1:0.43029389 
8192 8192 1:0.11821083 
8192 8192 1:0.11821083 
8192 8192 1:0.093453867 
8192 8192 1:0.088658121 
8192 8192 1:0.083587678 
8192 8192 1:0.62131007 
8192 8192 1:0.53276901 
8192 8192 1:0.53194872 
8192 8192 1:0.47652309 
8192 8192 1:0.47376593 
8192 8192 1:0.41793839 
8192 8192 1:0.38418519 
8192 8192 1:0.32507978 
8192 8192 1:0.29552707 
8192 8192 1:0.29700104 
8192 8192 1:0.21310761 
0 8192 1:0.26432744 
8192 8192 1:0.20896919 
0 8192 1:0.254222 
8192 8192 1:0.2724625 
8192 8192 1:0.029552707 
8192 8192 1:0.2910604 
8192 8192 1:0.029552707 
8192 8192 1:0.30853932 
8192 8192 1:0.12538152 
8192 8192 1:0.066081861 
8192 8192 1:0.13216372 
8192 8192 1:0.093453867 
8192 8192 1:0.093453867 
8192 8192 1:0.14776353 
0 8192 1:0.254222 
8192 8192 1:0.2724625 
8192 8192 1:0.23081402 
8192 8192 1:0.19824559 
0 8192 1:0.25076303 
8192 8192 1:0.20896919 
8192 8192 1:0.17232041 
8192 8192 1:0.18922966 
8192 8192 1:0.41793839 
8192 8192 1:0.43029389 
8192 8192 1:0.40196028 
8192 8192 1:0.36554679 
8192 8192 1:0.066081861 
8192 8192 1:0.3304093 
0 8192 1:0.24369786 
8192 8192 1:0.18690773 
8192 8192 1:0.26761115 
8192 8192 1:0.23826154 
8192 8192 1:0.1797621 
7090.076395138961 8192 1:0.26597436 
8192 8192 1:0.17731624 
8192 8192 1:0.26761115 
8192 8192 1:0.1797621 
8192 8192 1:0.1065538 
8192 8192 1:0.083587678 
8192 8192 1:0.2724625 
8192 8192 1:0.066081861 
8192 8192 1:0.11821083 
8192 8192 1:0.2724625 
8192 8192 1:0.23081402 
8192 8192 1:0.19824559 
8192 8192 1:0.17232041 
8192 8192 1:0.12184893 
8192 8192 1:0.041793839 
8192 8192 1:0.029552707 
8192 8192 1:0.23081402 
8192 8192 1:0.041793839 
8192 8192 1:0.1065538 
8192 8192 1:0.029552707 
8192 8192 1:0.1065538 
8192 8192 1:0.059105414 
8192 8192 1:0.029552707 
8192 8192 1:0.093453867 
8192 8192 1:0.18690773 
8192 8192 1:0.059105414 
8192 8192 1:0.066081861 
8192 8192 1:0.029552707 
8192 8192 1:0.088658121 
8192 8192 1:0.1065538 
8192 8192 1:0.1065538 
8192 8192 1:0.029552707 
8192 8192 1:0.029552707 
8192 8192 1:0.029552707 
8192 8192 1:0.2724625 
8192 8192 1:0.29552707 
8192 8192 1:0.20896919 
8192 8192 1:0.23081402 
8192 8192 1:0.2910604 
8192 8192 1:0.14776353 
8192 8192 1:0.22506671 
0 8192 1:0.25249842 
8192 8192 1:0.1591462 
8192 8192 1:0.18690773 
8192 8192 1:0.2724625 
8192 8192 1:0.30137965 
8192 8192 1:0.088658121 
8192 8192 1:0.029552707 
8192 8192 1:0.029552707 
8192 8192 1:0.066081861 
8192 8192 1:0.066081861 
8192 8192 1:0.029552707 
2.165726933521505 0.151480592930178 1:0 
9.023402479377573 0 1:0 
1184.670093176606 0 1:0 
0 5919.335932377342 1:0 
212.6766361575247 73.414605344099 1:0 
56.77069746676786 0 1:0 
0 893.283480671964 1:0 
206.1501401119664 0 1:0 
0.6976589053596756 0 1:0 
0 744.5888236747094 1:0 
0 3226.574732461482 1:0 
0 240.780736123317 1:0 
0 38.7402899678564 1:0 
178.314492493604 0 1:0 
0 272.1519689627003 1:0 
102.0280646228547 0 1:0 
102.2634565334817 0 1:0 
11.12432729399853 0 1:0 
0 296.6273088902668 1:0 
0 400.0590295137688 1:0 
0 419.5235889200404 1:0 
153.3154707205837 0 1:0 
0 2764.469302033709 1:0 
5911.218632937326 7631.724587922149 1:0 
8192 0 1:0 
8192 0 1:0 
8185.68857874587 0 1:0 
8192 680.0628404132019 1:0 
8192 0 1:0 
8192 208.7725153651904 1:0 
7848.266620788059 0 1:0 
8192 0 1:0 
8182.691270434981 0 1:0 
7937.765444108622 0 1:0 
8176.560086825509 0 1:0 
8192 0 1:0 
8192 0 1:0 
7676.749923228312 0 1:0 
8148.050407626154 0 1:0 
8192 0 1:0 
8192 0 1:0 
8192 0 1:0 
8192 25.22133768964336 1:0 
8192 8192 1:0 
8192 8192 1:0 
8192 8192 1:0 
7503.472060460133 8192 1:0 
7336.960652091507 8188.507790047482 1:0 
-951.2236482487056 8192 1:0.059105414 
-0 8192 1:0.11821083 
-8192 8192 1:0.041793839 
-0 8192 1:0.093453867 
-8192 8192 1:0.14776353 
-0 8192 1:0.75344912 
-0 8192 1:0.73109358 
-8192 8192 1:0.87517938 
-8192 8192 1:0.38532014 
-8192 8192 1:0.26432744 
-5977.445603106836 8192 1:0.80392057 
-0 8192 1:0.7574953 
-0 8192 1:0.46162805 
-8192 8192 1:0.40196028 
-0 8192 1:0.43933257 
-8192 8192 1:0.37381547 
-0 8192 1:0.083587678 
-0 8192 1:0.68035439 
-0 8192 1:0.48918433 
-8192 8192 1:0.26761115 
-2525.480937921848 8192 1:0.57380977 
-8192 8192 1:0.53276901 
-0 8192 1:0.67390537 
-8192 8192 1:0.14776353 
-0 8192 1:0.60852746 
-0 8192 1:0.68737845 
-0 8192 1:0.73940846 
-0 8192 1:0.59766652 
-3.164010365779051 8192 1:0.57380977 
-8192 8192 1:0.56072317 
-8192 8192 1:0.53276901 
-0 8192 1:0.60852746 
-0 8192 1:0.58287051 
-0 8192 1:0.47284331 
-8192 8192 1:0.57075757 
-0 8192 1:0.50239602 
-0 8192 1:0.4137379 
-0 8192 1:0.49185506 
-0 3972.19091447344 1:0.4363405 
-8192 8192 1:0.38532014 
-0 8192 1:0.48470044 
-0 8192 1:0.46162805 
-0 8192 1:0.47284331 
-8192 8192 1:0.32507978 
-8192 8192 1:0.3304093 
-8192 8192 1:0.29552707 
-3159.962935782526 8192 1:0.41055932 
-8192 8192 1:0.26597436 
-8192 8192 1:0.38418519 
-8192 8192 1:0.14776353 
-8192 8192 1:0.36554679 
-8192 8192 1:0.3182924 
-8192 8192 1:0.20686895 
-8192 8192 1:0.34464083 
-8192 8192 1:0.31966139 
-8192 8192 1:0.14776353 
-8192 8192 1:0.029552707 
-8192 8192 1:0.12184893 
-0 8192 1:0.093453867 
-0 8192 1:0.1065538 
-0 8192 1:0.083587678 
-0 8192 1:0.088658121 
-8192 8192 1:0.13216372 
-8192 8192 1:0.17232041 
-8192 8192 1:0.059105414 
-8192 8192 1:0.029552707 
-8192 8192 1:0.029552707 
-7857.090838063439 8192 1:0.059105414 
-8192 8192 1:0.14776353 
-8192 8192 1:0.041793839 
-8192 8192 1:0.15068982 
-8192 8192 1:0.029552707 
-8192 8192 1:0.14776353 
-0 8192 1:0.059105414 
-0 296.4959973418754 1:0.066081861 
-8192 8192 1:0.029552707 
-0 8192 1:0.083587678 
-0 8192 1:0.093453867 
-8192 8192 1:0.13216372 
-8192 8192 1:0.1797621 
-8192 8192 1:0.11821083 
-8192 8192 1:0.12538152 
-0 8192 1:0.088658121 
-0 8192 1:0.1065538 
-8192 8192 1:0.13216372 
-1.612565373236538 8192 1:0.059105414 
-8192 8192 1:0.029552707 
-0 8192 1:0.059105414 
-8192 8192 1:0.041793839 
-8192 8192 1:0.029552707 
-8192 8192 1:0.1591462 
-0 8192 1:0.088658121 
-8192 8192 1:0.029552707 
-8192 8192 1:0.029552707 
-0 8192 1:0.1065538 
-8192 8192 1:0.029552707 
-8192 8192 1:0.059105414 
-8192 8192 1:0.14776353 
-1187.222999912957 8192 1:0.11821083 
-8192 8192 1:0.14776353 
-0 8192 1:0.088658121 
-8192 8192 1:0.15068982 
-8192 8192 1:0.20896919 
-7949.865203719985 8192 1:0.059105414 
-8192 8192 1:0.12538152 
-8192 8192 1:0.14776353 
-8192 8192 1:0.17232041 
-8192 8192 1:0.041793839 
-8192 8192 1:0.14776353 
-8192 8192 1:0.041793839 
-8192 8192 1:0.1797621 
-0 136.2680919051022 1:0.066081861 
-8192 8192 1:0.2724625 
-8192 8192 1:0.12184893 
-7877.942271406038 8192 1:0.11821083 
-8192 8192 1:0.20686895 
-8192 8192 1:0.14776353 
-8192 8192 1:0.33695269 
-8192 8192 1:0.34464083 
-8192 8192 1:0.3182924 
-8192 8192 1:0.32507978 
-8192 8192 1:0.029552707 
-8192 8192 1:0.12184893 
-8192 8192 1:0.14776353 
-8192 8192 1:0.11821083 
-0 8192 1:0.059105414 
-8192 8192 1:0.11821083 
-0 8192 1:0.059105414 
-0 8192 1:0.088658121 
-8192 8192 1:0.041793839 
-8192 8192 1:0.18690773 
-8192 8192 1:0.029552707 
-8192 8192 1:0.029552707 
-8192 8192 1:0.14776353 
-8192 8192 1:0.029552707 
-0 8192 1:0.1065538 
-8192 8192 1:0.13216372 
-8192 8192 1:0.059105414 
-8192 8192 1:0.12184893 
-8192 8192 1:0.26597436 
-8192 8192 1:0.26597436 
-8192 8192 1:0.26432744 
-8192 8192 1:0.27879968 
-8192 8192 1:0.23826154 
-8192 8192 1:0.14776353 
-8192 8192 1:0.17232041 
-8192 8192 1:0.16717536 
-7506.900544115387 8192 1:0.059105414 
-8192 8192 1:0.041793839 
-0 8192 1:0.083587678 
-8192 8192 1:0.32642033 
-8192 8192 1:0.20686895 
-8192 8192 1:0.18922966 
-8192 8192 1:0.029552707 
-8192 8192 1:0.041793839 
-8192 8192 1:0.19824559 
-8192 8192 1:0.029552707 
-8192 8192 1:0.12184893 
-8192 8192 1:0.15068982 
-0 8192 1:0.1065538 
-0 8192 1:0.083587678 
-8192 8192 1:0.041793839 
-8192 8192 1:0.029552707 
-8192 8192 1:0.34464083 
-8192 8192 1:0.37614456 
-8192 8192 1:0.37381547 
-8192 8192 1:0.059105414 
-0 8192 1:0.50326446 
-0 8192 1:0.48108322 
-0 8192 1:0.093453867 
-8192 8192 1:0.33695269 
-5617.244220663898 8192 1:0.41055932 
-0 8029.320966908268 1:0.4200229 
-8192 8192 1:0.40196028 
-8192 8192 1:0.34464083 
-8192 128.3384838869977 1:0 
-8192 129.6133000703946 1:0 
-8192 329.7677763483791 1:0 
-8192 888.3971718479245 1:0 
-8192 70.35632711039365 1:0 
-8192 311.2401768048813 1:0 
-8192 140.7228895942108 1:0 
-8192 149.4570184048064 1:0 
-8192 130.7253767991182 1:0 
-8192 549.4749204664339 1:0 
-8192 3002.993141354331 1:0 
-8192 1598.479611804316 1:0 
-8192 295.828279768836 1:0 
-8192 0 1:0 
-8192 0 1:0 
-8192 0 1:0 
-8192 0 1:0 
-8192 0 1:0 
-8192 339.8640860256993 1:0 
-8192 7944.254894176864 1:0 
-8192 8192 1:0 
-8192 7732.528070171145 1:0 
-8192 -1805.014815703757 1:0.21514695 
-5462.98794839226 -8192 1:0.066081861 
-0 -8192 1:0.39428227 
-8192 -8192 1:0.17232041 
-8192 -8192 1:0.29552707 
-6573.096227918146 -250.4386618165469 1:0.82958402 
-0 -8192 1:0.12538152 
-0 -8192 1:0.13216372 
-6900.72619705034 -8192 1:0.38532014 
-3440.101298507772 -8192 1:0.34590556 
-8192 -0 1:0.26761115 
-0 -8192 1:0.78856455 
-3355.371752147439 -8192 1:0.50326446 
-8192 -8192 1:0.3304093 
-0 -8192 1:0.56460365 
-7783.321893773438 -8192 1:0.37029436 
-8192 -8192 1:0.50586085 
-0 -8192 1:0.5821208 
-8192 -8192 1:0.029552707 
-8192 -8192 1:0.14776353 
-0 -8192 1:0.71049525 
-4436.027668410046 -8192 1:0.33695269 
-8192 -8192 1:0.059105414 
-8192 -8192 1:0.029552707 
-1262.261301359908 -8192 1:0.34590556 
-8192 -8192 1:0.30137965 
-8192 -8192 1:0.041793839 
-8192 -8192 1:0.20896919 
-6290.262640127566 -8192 1:0.37381547 
-6378.269807570615 -8192 1:0.3182924 
-8192 -8192 1:0.1591462 
-0 -8192 1:0.13216372 
-0 -8192 1:0.56460365 
-8192 -8192 1:0.029552707 
-0 -8192 1:0.13216372 
-8192 -8192 1:0.041793839 
-0 -8192 1:0.56460365 
-8192 -8192 1:0.30426373 
-0 -8192 1:0.35586171 
-0 -8192 1:0.066081861 
-8192 -8192 1:0.45013341 
-8192 -8192 1:0.041793839 
-8192 -8192 1:0.029552707 
-0 -7205.139694196064 1:0.58287051 
-8192 -0 1:0.23826154 
-8192 -8192 1:0.059105414 
-0 -5971.737107437356 1:0.60637084 
-7410.403734726529 -8192 1:0.40196028 
-8192 -0 1:0.87866513 
-6173.720427418521 -8192 1:0.44721362 
-8192 -8192 1:0.029552707 
-0 -8192 1:0.13216372 
-0 -8192 1:0.80392057 
-0 -8192 1:0.11821083 
-8192 -8192 1:0.029552707 
-8192 -8192 1:0.19824559 
-8192 -0 1:0.23081402 
-0 -8192 1:0.083587678 
-8085.78345138297 -15.98510105995593 1:0.82958402 
-8192 -8192 1:0.1591462 
-0 -8192 1:0.088658121 
-8192 -8192 1:0.029552707 
-8192 -8192 1:0.029552707 
-0 -8192 1:0.35586171 
-8192 -8192 1:0.3304093 
-0 -8192 1:0.11821083 
-0 -8192 1:0.093453867 
-8192 -8192 1:0.066081861 
-8192 -8192 1:0.1591462 
-0 -8192 1:0.34464083 
-8192 -8192 1:0.029552707 
-8192 -8192 1:0.041793839 
-8192 -8192 1:0.30853932 
-8192 -0 1:0.2910604 
-0 -8192 1:0.35708673 
-8192 -8192 1:0.17232041 
-0 -8192 1:0.1065538 
-0 -8192 1:0.1065538 
-8192 -8192 1:0.059105414 
-8192 -8192 1:0.041793839 
-8192 -8192 1:0.17232041 
-0 -8192 1:0.088658121 
-0 -8192 1:0.56460365 
-0 -8192 1:0.72989799 
-8192 -8192 1:0.059105414 
-8192 -8192 1:0.029552707 
-0 -8192 1:0.12538152 
-0 -8192 1:0.65015955 
-8192 -0 1:0.26597436 
-8192 -0 1:0.23642165 
-8192 -8192 1:0.46726932 
-8192 -8192 1:0.31966139 
-0 -8192 1:0.1065538 
-8192 -6402.207506304998 1:0.21514695 
-8192 -8192 1:0.15068982 
-8192 -8192 1:0.029552707 
-8192 -8192 1:0.17731624 
-0 -8192 1:0.066081861 
-8192 -8192 1:0.14776353 
-8192 -4503.089850307426 1:0.21514695 
-8192 -8192 1:0.17731624 
-8192 -8192 1:0.041793839 
-8192 -8192 1:0.20686895 
-8192 -8192 1:0.14776353 
-0 -8192 1:0.39649118 
-8192 -8192 1:0.029552707 
-8192 -8192 1:0.029552707 
-8192 -8192 1:0.059105414 
-8192 -0 1:0.9204138 
-0 -8192 1:0.12184893 
-2440.847603344138 -8192 1:0.35463248 
-0 -8192 1:0.54492499 
-8192 -0 1:0.27879968 
-8192 -8192 1:0.39759102 
-8192 -8192 1:0.20896919 
-8192 -8192 1:0.19824559 
-0 -8192 1:0.82800333 
-0 -8192 1:0.63245552 
-8192 -8192 1:0.17731624 
-0 -8192 1:0.32642033 
-8192 -8192 1:0.059105414 
-8192 -8192 1:0.029552707 
-8192 -8192 1:0.029552707 
-7945.343908622528 -8192 1:0.066081861 
-8192 -0 1:0.26432744 
-8192 -8192 1:0.029552707 
-8191.950585199065 -8192 1:0.42313037 
-8192 -8192 1:0.041793839 
-8192 -8192 1:0.31966139 
-8192 -8192 1:0.059105414 
-8192 -8192 1:0.041793839 
-0 -8192 1:0.78021383 
-0 -8192 1:0.083587678 
-8192 -8192 1:0.059105414 
-8192 -8192 1:0.50586085 
-0 -8192 1:0.083587678 
-0 -8192 1:0.5425156 
-7699.09586189504 -8192 1:0.066081861 
-8192 -8192 1:0.1591462 
-0 -8192 1:0.11821083 
-8192 -8192 1:0.18690773 
-8192 -8192 1:0.39759102 
-0 -8192 1:0.11821083 
-0 -8192 1:0.066081861 
-0 -8192 1:0.74058872 
-8192 -8192 1:0.29552707 
-8192 -8192 1:0.17731624 
-8192 -0 1:0.25076303 
-8192 -8192 1:0.14776353 
-238.8149472472909 -8192 1:0.46162805 
-8192 -8192 1:0.16717536 
-8192 -8192 1:0.19824559 
-0 -8192 1:0.52865489 
-0 -8192 1:0.56845767 
-0 -8192 1:0.093453867 
-7769.375153959612 -8192 1:0.066081861 
-8192 -8192 1:0.14776353 
-8192 -8192 1:0.17731624 
-8192 -8192 1:0.041793839 
-8192 -8192 1:0.1591462 
-8192 -0 1:0.23081402 
-8192 -8192 1:0.15068982 
-8192 -8192 1:0.029552707 
-8192 -8192 1:0.19824559 
-8192 -8192 1:0.1797621 
-8192 -8192 1:0.47743858 
-8192 -8192 1:0.029552707 
-8192 -8192 1:0.14776353 
-8192 -8192 1:0.029552707 
-8192 -8192 1:0.029552707 
-8192 -8192 1:0.51696121 
-8192 -0 1:0.84677662 
-8192 -8192 1:0.029552707 
-8192 -0 1:0.22506671 
-869.2159435723225 -508.5674940655696 1:1 
-8192 -8192 1:0.059105414 
-8192 -8192 1:0.029552707 
-8192 -8192 1:0.15068982 
-0 -8192 1:0.4200229 
-0 -8192 1:0.1065538 
-8192 -8192 1:0.029552707 
-8192 -8192 1:0.17232041 
-8192 -8192 1:0.18922966 
-8192 -0 1:0.83273632 
-8192 -0 1:0.2724625 
-8192 -8192 1:0.19824559 
-0 -8192 1:0.12184893 
-8192 -8192 1:0.16717536 
-91.39704723478167 -8192 1:0.34590556 
-6877.934497316255 -8192 1:0.38532014 
-0 -8192 1:0.093453867 
-0 -8192 1:0.083587678 
-0 -8192 1:0.56072317 
-8192 -8192 1:0.059105414 
-2136.620112658014 -8192 1:0.29700104 
-8192 -1322.137264371714 1:0.29255689 
-8192 -8192 1:0.20896919 
-8192 -0 1:0.2910604 
-8192 -0 1:0.23826154 
-0 -8192 1:0.093453867 
